{
    "weights": {
        "kernel": [
            [
                -0.1800692230463028,
                0.3886890411376953
            ],
            [
                -0.05049044266343117,
                -0.3035629391670227
            ],
            [
                0.02458970621228218,
                0.01735418662428856
            ],
            [
                0.2597291171550751,
                -0.2650555968284607
            ],
            [
                -0.07596822828054428,
                -0.04167089983820915
            ],
            [
                0.07972545176744461,
                -0.061235569417476654
            ],
            [
                -0.01778341457247734,
                -0.09474480897188187
            ],
            [
                0.07217685878276825,
                0.20525437593460083
            ],
            [
                -0.3616253733634949,
                0.0367424376308918
            ],
            [
                -0.010804877616465092,
                0.2120930701494217
            ],
            [
                -0.10518081486225128,
                0.15743036568164825
            ],
            [
                -0.12686261534690857,
                -0.1439468264579773
            ],
            [
                0.06152331456542015,
                0.1970389187335968
            ],
            [
                0.2968364655971527,
                -0.44383516907691956
            ],
            [
                -0.16356192529201508,
                0.08253539353609085
            ],
            [
                -0.30661067366600037,
                0.5915302634239197
            ],
            [
                0.7145806550979614,
                -0.6330505013465881
            ],
            [
                0.03175261244177818,
                -0.29635941982269287
            ],
            [
                0.049287550151348114,
                -0.15442971885204315
            ],
            [
                0.517800509929657,
                -0.3556114435195923
            ],
            [
                -0.15605902671813965,
                0.15437492728233337
            ],
            [
                -0.16342052817344666,
                0.2759667634963989
            ],
            [
                0.038352351635694504,
                -0.3277566134929657
            ],
            [
                0.5185310244560242,
                -0.7451735734939575
            ],
            [
                0.24353916943073273,
                -0.1418999582529068
            ],
            [
                0.346985399723053,
                0.07138621807098389
            ],
            [
                0.10170050710439682,
                -0.07959314435720444
            ],
            [
                0.03665926679968834,
                0.020392484962940216
            ],
            [
                0.018506081774830818,
                -0.031651221215724945
            ],
            [
                0.11774607747793198,
                -0.003475228091701865
            ],
            [
                -0.012730985879898071,
                0.27947139739990234
            ],
            [
                -0.019107328727841377,
                0.11079394817352295
            ],
            [
                -0.0024283863604068756,
                0.0958646908402443
            ],
            [
                -0.4579797387123108,
                0.14915569126605988
            ],
            [
                0.08284829556941986,
                0.17961715161800385
            ],
            [
                -0.3924012780189514,
                0.21050859987735748
            ],
            [
                -0.15527762472629547,
                0.2670891284942627
            ],
            [
                0.1932048499584198,
                -0.16972225904464722
            ],
            [
                0.0891774520277977,
                -0.42985084652900696
            ],
            [
                0.032885849475860596,
                0.05511216074228287
            ],
            [
                -0.1682480126619339,
                0.1100974828004837
            ],
            [
                0.26417434215545654,
                -0.43580004572868347
            ],
            [
                -0.3054032623767853,
                0.3485156297683716
            ],
            [
                0.6348225474357605,
                -0.35720181465148926
            ],
            [
                0.0885230079293251,
                0.03180776536464691
            ],
            [
                -0.032380953431129456,
                0.0026732732076197863
            ],
            [
                0.2314828634262085,
                -0.22882713377475739
            ],
            [
                -0.23888573050498962,
                0.3917115032672882
            ],
            [
                0.30446165800094604,
                -0.4853588938713074
            ],
            [
                0.4542650282382965,
                -0.025310155004262924
            ],
            [
                0.5339126586914062,
                -0.5177142024040222
            ],
            [
                0.04679730907082558,
                0.3611373007297516
            ],
            [
                0.228875994682312,
                0.010191047564148903
            ],
            [
                0.03858889266848564,
                0.08422542363405228
            ],
            [
                0.028588812798261642,
                0.03896715119481087
            ],
            [
                0.14951388537883759,
                -0.4499414563179016
            ],
            [
                0.2161729633808136,
                -0.18588793277740479
            ],
            [
                0.27079856395721436,
                -0.03615744784474373
            ],
            [
                0.21421445906162262,
                -0.28371989727020264
            ],
            [
                -0.031535856425762177,
                -0.0021095245610922575
            ],
            [
                0.09817030280828476,
                0.08368942886590958
            ],
            [
                0.23831678926944733,
                0.15200701355934143
            ],
            [
                -0.1207590252161026,
                0.4243333637714386
            ],
            [
                0.10234929621219635,
                0.019352329894900322
            ],
            [
                0.21790409088134766,
                -0.0022220052778720856
            ],
            [
                0.09360133111476898,
                0.18769268691539764
            ],
            [
                0.033616065979003906,
                0.028811180964112282
            ],
            [
                -0.5314536094665527,
                0.31790077686309814
            ],
            [
                -0.24914035201072693,
                -0.08967894315719604
            ],
            [
                -0.029126744717359543,
                -0.21632200479507446
            ],
            [
                -0.6138882637023926,
                0.2025074064731598
            ],
            [
                0.041681818664073944,
                -0.047023922204971313
            ],
            [
                0.0948084369301796,
                0.03719007596373558
            ],
            [
                -0.1227683573961258,
                0.35659298300743103
            ],
            [
                -0.22756315767765045,
                0.054690465331077576
            ],
            [
                -0.14889980852603912,
                0.15595321357250214
            ],
            [
                -0.2648185193538666,
                0.4410362243652344
            ],
            [
                0.12031640112400055,
                0.04988100379705429
            ],
            [
                -0.21116310358047485,
                0.10944684594869614
            ],
            [
                0.45995786786079407,
                -0.5767113566398621
            ],
            [
                0.3309948742389679,
                -0.1625950038433075
            ],
            [
                0.2728058993816376,
                -0.03364589065313339
            ],
            [
                -0.055270638316869736,
                -0.03793206810951233
            ],
            [
                0.18434996902942657,
                -0.033151544630527496
            ],
            [
                -0.010773273184895515,
                0.2174990028142929
            ],
            [
                0.05846182629466057,
                -0.4590536057949066
            ],
            [
                -0.3173442780971527,
                0.3005598187446594
            ],
            [
                -0.048331376165151596,
                -0.10978103429079056
            ],
            [
                0.15391574800014496,
                -0.004595333244651556
            ],
            [
                -0.43502017855644226,
                0.3785279393196106
            ],
            [
                0.4192470610141754,
                -0.26544514298439026
            ],
            [
                -0.10922294110059738,
                -0.023879799991846085
            ],
            [
                -0.11912927776575089,
                0.2815161943435669
            ],
            [
                0.35333696007728577,
                -0.22739753127098083
            ],
            [
                -0.07534937560558319,
                -0.012563152238726616
            ],
            [
                -0.14433647692203522,
                0.03216860070824623
            ]
        ],
        "bias": [
            -0.19840359687805176,
            0.19838136434555054
        ]
    },
    "lookupList": [
        false,
        true
    ],
    "version": "METASIM-1.0.0"
}