{
    "weights": {
        "kernel": [
            [
                -0.38976266980171204,
                0.09271847456693649,
                -0.14919036626815796,
                -0.055600330233573914
            ],
            [
                0.2500736713409424,
                -0.10430852323770523,
                0.09565567225217819,
                -0.056064147502183914
            ],
            [
                0.2683177888393402,
                0.07959127426147461,
                0.2504565119743347,
                0.1810102015733719
            ],
            [
                0.6506404876708984,
                -0.1126396507024765,
                -0.10917958617210388,
                -0.3073902428150177
            ],
            [
                -0.1112435832619667,
                0.05708347633481026,
                -0.148174449801445,
                -0.06798476725816727
            ],
            [
                -0.15249019861221313,
                -0.22415883839130402,
                0.1131463572382927,
                0.22453729808330536
            ],
            [
                -0.11853067576885223,
                -0.22206009924411774,
                -0.06361720710992813,
                -0.022098323330283165
            ],
            [
                0.0678718239068985,
                -0.042001962661743164,
                -0.11176992952823639,
                0.21493132412433624
            ],
            [
                -0.023494672030210495,
                -0.0798148661851883,
                0.12405561655759811,
                0.26405686140060425
            ],
            [
                -0.5609537959098816,
                -0.04940350353717804,
                0.21504981815814972,
                0.24058851599693298
            ],
            [
                -0.05873899161815643,
                0.0004126418789383024,
                -0.0009310381137765944,
                -0.0681990534067154
            ],
            [
                -0.022195767611265182,
                0.28524914383888245,
                0.18542537093162537,
                0.0981469452381134
            ],
            [
                0.2476169914007187,
                0.13226187229156494,
                -0.02677365206182003,
                -0.17624731361865997
            ],
            [
                1.194926381111145,
                -0.13548365235328674,
                -0.1571129560470581,
                -0.3302766680717468
            ],
            [
                0.35822024941444397,
                0.1458013504743576,
                -0.08234480768442154,
                -0.21706905961036682
            ],
            [
                -0.044636230915784836,
                -0.11259114742279053,
                0.18175575137138367,
                0.2354315221309662
            ],
            [
                0.6665933728218079,
                -0.05738503113389015,
                -0.11299056559801102,
                -0.1879057139158249
            ],
            [
                0.06284351646900177,
                -0.06578163057565689,
                -0.21087796986103058,
                -0.22378145158290863
            ],
            [
                0.08803907781839371,
                -0.09219449758529663,
                0.037247516214847565,
                -0.0319158136844635
            ],
            [
                0.05526260286569595,
                -0.1575106680393219,
                0.17438387870788574,
                0.002173543907701969
            ],
            [
                -0.2113928645849228,
                -0.0947147086262703,
                -0.08594697713851929,
                0.2485046237707138
            ],
            [
                0.10246322304010391,
                0.20359015464782715,
                0.28934288024902344,
                0.18403871357440948
            ],
            [
                0.11105672270059586,
                0.2957051992416382,
                -0.05075570195913315,
                -0.21099747717380524
            ],
            [
                0.5409632325172424,
                -0.13387621939182281,
                -0.10853616148233414,
                -0.158915176987648
            ],
            [
                -0.031297724694013596,
                0.06117358058691025,
                -0.09366302192211151,
                -0.1014668419957161
            ],
            [
                0.07272759824991226,
                -0.3277638256549835,
                -0.06852027773857117,
                -0.007371028419584036
            ],
            [
                -0.06650616228580475,
                -0.17592746019363403,
                0.04406845197081566,
                -0.03344029188156128
            ],
            [
                -0.1096726655960083,
                0.2226436883211136,
                0.15290360152721405,
                -0.29732632637023926
            ],
            [
                0.035269495099782944,
                0.012574137188494205,
                0.1192953959107399,
                0.029056118801236153
            ],
            [
                -0.29953664541244507,
                -0.12929368019104004,
                0.2998959720134735,
                0.3240169286727905
            ],
            [
                0.1547454446554184,
                -0.2546241283416748,
                0.2860042452812195,
                -0.19830389320850372
            ],
            [
                -0.521335780620575,
                0.26112785935401917,
                0.014753704890608788,
                0.27292880415916443
            ],
            [
                -0.2630664110183716,
                0.1160719022154808,
                0.4301198422908783,
                0.4297153055667877
            ],
            [
                -0.1804293394088745,
                0.05171613395214081,
                0.09837735444307327,
                0.14044737815856934
            ],
            [
                -0.35184308886528015,
                0.13315756618976593,
                0.23039580881595612,
                0.12245304882526398
            ],
            [
                -0.47066572308540344,
                -0.13442791998386383,
                0.003676521359011531,
                0.0004470525018405169
            ],
            [
                0.26933446526527405,
                -0.10757377743721008,
                -0.09351379424333572,
                -0.04544143006205559
            ],
            [
                -0.2108467072248459,
                0.007180815562605858,
                -0.11468255519866943,
                -0.01572011224925518
            ],
            [
                0.20134463906288147,
                0.4880375862121582,
                -0.023628665134310722,
                -0.10436178743839264
            ],
            [
                -0.34514084458351135,
                0.18332825601100922,
                0.07178077846765518,
                -0.05504583194851875
            ],
            [
                0.4046919345855713,
                0.03601813688874245,
                -0.0768992081284523,
                -0.055261291563510895
            ],
            [
                0.31706705689430237,
                0.09120915085077286,
                -0.21931760013103485,
                -0.32876598834991455
            ],
            [
                -0.49469318985939026,
                -0.12512166798114777,
                0.13532985746860504,
                0.24328210949897766
            ],
            [
                0.3536929488182068,
                0.10132342576980591,
                0.012627802789211273,
                -0.007256282493472099
            ],
            [
                -0.14373138546943665,
                -0.09924648702144623,
                -0.10447899997234344,
                0.20776395499706268
            ],
            [
                -0.20914272964000702,
                -0.13148950040340424,
                0.15971659123897552,
                0.30458712577819824
            ],
            [
                0.05363752692937851,
                0.10714317113161087,
                0.01670295186340809,
                0.022436965256929398
            ],
            [
                -0.3596154451370239,
                -0.07772614061832428,
                -0.07092688977718353,
                0.13825464248657227
            ],
            [
                0.08956119418144226,
                0.13542763888835907,
                0.043425850570201874,
                -0.37000879645347595
            ],
            [
                0.22629611194133759,
                0.06529609113931656,
                0.07573050260543823,
                0.057221125811338425
            ],
            [
                0.2811531126499176,
                0.12949499487876892,
                -0.16949333250522614,
                -0.22181864082813263
            ],
            [
                0.044106435030698776,
                -0.04886564612388611,
                -0.048096902668476105,
                -0.35393208265304565
            ],
            [
                0.16227783262729645,
                0.08601966500282288,
                0.08782477676868439,
                -0.23410962522029877
            ],
            [
                0.048408351838588715,
                0.00982564128935337,
                0.0036261798813939095,
                0.057860471308231354
            ],
            [
                0.07862742990255356,
                -0.38368263840675354,
                0.029959779232740402,
                0.35489973425865173
            ],
            [
                -0.031814854592084885,
                0.16670536994934082,
                -0.03492603451013565,
                0.05317242443561554
            ],
            [
                0.4268747866153717,
                0.18347564339637756,
                -0.07790310680866241,
                -0.43104246258735657
            ],
            [
                0.10833550244569778,
                -0.05178641155362129,
                -0.24403083324432373,
                0.006641452666372061
            ],
            [
                1.0163322687149048,
                -0.18357135355472565,
                -0.28034067153930664,
                -0.24271513521671295
            ],
            [
                -0.8665823936462402,
                -0.6305440664291382,
                0.17590728402137756,
                0.2751939296722412
            ],
            [
                0.2833370566368103,
                0.1034429743885994,
                -0.06286316365003586,
                -0.1418914645910263
            ],
            [
                -0.40354079008102417,
                -0.15682289004325867,
                0.010418253019452095,
                -0.05548127740621567
            ],
            [
                -0.13131295144557953,
                0.07321164757013321,
                0.21856649219989777,
                0.05893200635910034
            ],
            [
                0.3077726662158966,
                0.02501530386507511,
                -0.09662998467683792,
                -0.3531302213668823
            ],
            [
                0.14766299724578857,
                0.14233048260211945,
                -0.07725582271814346,
                -0.025146592408418655
            ],
            [
                0.4084824323654175,
                -0.07506674528121948,
                -0.1746944934129715,
                -0.014968940056860447
            ],
            [
                -0.28847941756248474,
                -0.03634065017104149,
                -0.059550583362579346,
                -0.14595003426074982
            ],
            [
                -0.4597388803958893,
                0.13000409305095673,
                0.22511734068393707,
                0.3279816508293152
            ],
            [
                -0.4450434446334839,
                0.14733925461769104,
                0.3354496657848358,
                0.14405430853366852
            ],
            [
                0.2849774658679962,
                0.3113645017147064,
                -0.09154178202152252,
                -0.1502605676651001
            ],
            [
                -0.4286808371543884,
                -0.23627223074436188,
                0.33624476194381714,
                0.5255818367004395
            ],
            [
                0.15655077993869781,
                -0.15620820224285126,
                -0.18456919491291046,
                0.07102826982736588
            ],
            [
                0.15936090052127838,
                0.06302908062934875,
                0.1167692244052887,
                0.06660796701908112
            ],
            [
                -0.04912620410323143,
                -0.11140675097703934,
                -0.32921385765075684,
                0.267937570810318
            ],
            [
                -0.17595407366752625,
                0.11819009482860565,
                -0.07742255181074142,
                -0.06747716665267944
            ],
            [
                -0.48031800985336304,
                0.04288077726960182,
                0.10690703988075256,
                0.12079980224370956
            ],
            [
                0.09500988572835922,
                0.08560070395469666,
                -0.0744439885020256,
                0.15916885435581207
            ],
            [
                -0.26192909479141235,
                -0.004957164172083139,
                -0.004680524580180645,
                0.05109330266714096
            ],
            [
                -0.24722430109977722,
                -0.16216875612735748,
                0.2511577308177948,
                0.312087744474411
            ],
            [
                0.6219910979270935,
                -0.18151375651359558,
                -0.1773587316274643,
                0.005848304368555546
            ],
            [
                0.01624247059226036,
                -0.19748543202877045,
                -0.01044777873903513,
                -0.06942719221115112
            ],
            [
                0.35340753197669983,
                -0.019027872011065483,
                -0.04126109927892685,
                -0.04429672285914421
            ],
            [
                0.12627118825912476,
                0.04030381515622139,
                -0.05423271283507347,
                -0.21799597144126892
            ],
            [
                0.31895363330841064,
                -0.1262752264738083,
                0.02027221769094467,
                -0.07340572029352188
            ],
            [
                -0.07510484009981155,
                -0.28651928901672363,
                0.3024293780326843,
                0.43654778599739075
            ],
            [
                -0.5460504293441772,
                -0.04804006218910217,
                0.14052189886569977,
                0.20294786989688873
            ],
            [
                -0.2846297025680542,
                -0.09011521935462952,
                0.08512630313634872,
                0.2774030268192291
            ],
            [
                0.025594204664230347,
                0.21231341361999512,
                -0.19375702738761902,
                -0.0003593129222281277
            ],
            [
                -0.07366027683019638,
                -0.09282130748033524,
                0.19021162390708923,
                0.17907583713531494
            ],
            [
                -0.6451337933540344,
                -0.05486574396491051,
                0.19077515602111816,
                0.023190980777144432
            ],
            [
                0.3393968939781189,
                -0.140208899974823,
                -0.08642894774675369,
                0.009552101604640484
            ],
            [
                0.47876042127609253,
                0.09569453448057175,
                -0.028278205543756485,
                -0.24613440036773682
            ],
            [
                0.018416214734315872,
                -0.069523885846138,
                -0.14084073901176453,
                0.020999955013394356
            ],
            [
                0.21786831319332123,
                -0.01565675064921379,
                -0.08165593445301056,
                0.0656726211309433
            ],
            [
                -0.13229353725910187,
                0.010847868397831917,
                0.13229887187480927,
                0.07282666862010956
            ],
            [
                -0.45045116543769836,
                -0.13816288113594055,
                0.19273541867733002,
                0.09267523139715195
            ]
        ],
        "bias": [
            0.5632338523864746,
            0.6482791900634766,
            -0.059925347566604614,
            -0.8167640566825867
        ]
    },
    "lookupList": [
        1,
        2,
        3,
        4
    ],
    "version": "METASIM-1.0.0"
}